{
  "input_size": 12,
  "hidden_size": 12,
  "output_size": 4,
  "weight_range": 2.0,
  "hidden_weights": [
    [
      -1.481228053652082,
      2.0,
      2.0,
      -0.05719118942759627,
      -0.9576544377965276,
      0.44724416232229447,
      -1.9103351092900662,
      2.0,
      0.8105300984424006,
      0.9051143506170847,
      -0.37176864210486527,
      -0.7569727941937224,
      0.192902761859702
    ],
    [
      -0.26946361735711666,
      -0.3336580311106624,
      2.0,
      -1.4214491136686347,
      -1.880436678409958,
      1.1936981046220538,
      -2.0,
      -1.5129555746382541,
      0.33960521366972773,
      -1.4966820655704047,
      -0.27118991528399705,
      -0.16178860311207355,
      -0.9792338426651399
    ],
    [
      -0.33620933004276365,
      0.039609445012126265,
      -1.5940619388772692,
      0.5556354499315056,
      1.123991193797452,
      0.6995229574745574,
      2.0,
      -1.746862295425125,
      -1.6061561243699314,
      0.19995477904418335,
      -1.1507419840831874,
      -1.2403785655925037,
      2.0
    ],
    [
      1.7457993309051427,
      -1.225036552311546,
      -2.0,
      1.817355355403372,
      -0.528173853063646,
      1.407064118643555,
      -1.5844259955322584,
      1.7627570745786276,
      1.1241676673143393,
      -0.39783748267576236,
      2.0,
      -1.4918329464265478,
      -1.2442298364746174
    ],
    [
      -1.0952099979883974,
      0.23814077069990236,
      2.0,
      -1.416271578559257,
      1.8161176081217767,
      0.07137869489152304,
      -2.0,
      0.939083866515999,
      1.1583280024470848,
      -0.6146014085967583,
      -0.7648192393792845,
      -1.6713551263444257,
      1.4347191580663456
    ],
    [
      1.8459789191213365,
      -1.2500338135630487,
      -2.0,
      -1.605958592490728,
      -0.6120292237312763,
      0.1983500316280543,
      0.17079192015860245,
      -1.2833720032209892,
      1.7036931667846065,
      -0.5079654969473935,
      1.2123404595193943,
      0.3554500953014883,
      -1.695764184476692
    ],
    [
      -0.7129348242080252,
      -1.8277136614569995,
      -1.550987947356021,
      0.9081014337191787,
      1.384890685814534,
      1.3721908339729478,
      1.7700273389859493,
      1.0287618889790968,
      -0.37977318322388776,
      -0.845762731395327,
      -1.1167486867232554,
      0.6314156689815132,
      1.877162546653655
    ],
    [
      0.810704393551206,
      -1.9182972111312575,
      -0.7542192964298862,
      1.1684815881931052,
      -2.0,
      2.0,
      -1.547748951897572,
      0.1625810239598373,
      1.3547942085795635,
      -1.0001144222199168,
      0.7689503011755472,
      -0.1091634768176809,
      -0.11915676998550728
    ],
    [
      -1.6434137826348416,
      1.0003791313900035,
      -0.6689343375556259,
      -0.7255227019256982,
      1.958657163390504,
      0.6474588855144776,
      -2.0,
      -0.775457321705165,
      -1.1225482821476511,
      0.798435601339222,
      1.2190693149961813,
      2.0,
      -0.5288088421676491
    ],
    [
      0.021090334027817126,
      1.1465436775887887,
      1.960472793944169,
      -0.8618932911628269,
      -1.7091668978372483,
      -0.631646115352341,
      -1.689039470106243,
      -1.5525223202964882,
      1.157635284189646,
      -0.5215731903064099,
      -1.703630936047342,
      -1.3897681200899226,
      -0.6497591071668426
    ],
    [
      0.6537693220949711,
      -1.9138391115431967,
      -0.864626729121648,
      -1.5168775709810927,
      0.5766386403332483,
      -1.1262255016384546,
      -0.09240354169837017,
      2.0,
      -1.4699053563369828,
      -2.0,
      -1.1562837184111752,
      -1.4986250195014303,
      -1.7399114617313085
    ],
    [
      -1.3222215328471432,
      1.8812712442991482,
      -1.8416411164420583,
      -2.0,
      -0.5781786004785993,
      1.6952191957485074,
      2.0,
      0.1292758862982507,
      -0.018234672091136828,
      0.5581509489836745,
      -1.3875098176641774,
      -0.5723867368359067,
      0.9467717207142233
    ]
  ],
  "output_weights": [
    [
      -0.5518178878550943,
      -1.7799653684484056,
      1.7441164686441768,
      1.7952319909950436,
      1.06313672059159,
      -1.9127086659599157,
      1.858082662533242,
      1.2606665035009734,
      0.7931979056301292,
      0.25410544271243307,
      -1.4610059452064013,
      -0.4341710798022683,
      -0.7102417891450057
    ],
    [
      1.1786059799754987,
      -1.9606857059470613,
      -1.7024004160642097,
      2.0,
      -0.6666194694242928,
      -1.9831715541369581,
      1.4299418858527964,
      1.3105116350223196,
      -1.0974370444488408,
      0.7137920416033555,
      -1.5952621201246329,
      0.24946959184556972,
      1.7964633199493552
    ],
    [
      -2.0,
      0.9823252797344105,
      1.725700054960766,
      -1.8466859583929573,
      -1.1968488004964453,
      0.9745933744361668,
      0.7690215619518627,
      1.6304859435419645,
      -1.6472051870409958,
      0.3476917546489324,
      2.0,
      1.3766598433437616,
      1.8349004022981963
    ],
    [
      -0.9949250695258106,
      0.8943564023773884,
      -0.9204615257822777,
      -0.41000019832276013,
      1.184130924682493,
      -1.4473013865481636,
      1.622949443199239,
      -0.8444758216105167,
      0.20420636565510775,
      1.5168961471362223,
      0.4257649575994824,
      -1.848708334040532,
      -1.2403627012883673
    ]
  ]
}
