{
  "input_size": 12,
  "hidden_size": 32,
  "output_size": 4,
  "weight_range": 3.0,
  "hidden_weights": [
    [
      -0.4468768671838038,
      3.0,
      -0.47592907768278514,
      -0.8827665833245224,
      -1.9747220665882783,
      2.524679824247002,
      -2.2688233545716803,
      -0.032009094938005855,
      2.549753705401691,
      -1.8954819075423197,
      -0.6984464587166973,
      0.12276561020039167,
      -2.2001865224235297
    ],
    [
      0.008850249591878412,
      0.3173942517170787,
      2.4714065881002623,
      -0.09681900476058303,
      1.3387684889668203,
      1.655401316474157,
      -1.6879010698854087,
      2.6324091509686127,
      -2.3957173044400006,
      -2.606479965740033,
      1.347078389445003,
      2.4151634392909713,
      0.42581833760449483
    ],
    [
      3.0,
      -1.9896221566915213,
      1.766828773104379,
      0.1761464711101669,
      -1.7187541604246297,
      2.167525554012858,
      -1.2435928389682145,
      -0.6410258255161758,
      -1.8255325848816466,
      -1.6110120461382207,
      2.228611255378093,
      -2.330822761276313,
      -1.4890203155988788
    ],
    [
      -2.2272708907619188,
      -0.2978608740106796,
      -3.0,
      0.8701378008552434,
      -2.4888143807369247,
      3.0,
      0.4656634933038666,
      -0.157642658060952,
      -2.0009982896856022,
      1.5533090968448522,
      -0.4774616750396966,
      -0.3237087412557951,
      -0.37071993220701105
    ],
    [
      -0.08024676153021515,
      0.1816692108315957,
      1.7945800837441,
      1.5511877984775688,
      2.2096136532277852,
      -0.6559111722584373,
      -0.9482998319424875,
      -0.4951746750583961,
      -1.4741459912815746,
      -0.28461636576012583,
      -2.767439095876074,
      0.49994635146337807,
      -0.1447830140125621
    ],
    [
      -1.3508442530113887,
      1.3481263212347492,
      3.0,
      -3.0,
      -1.2743753367412503,
      -0.4352300728832107,
      -3.0,
      2.6441300674503383,
      -1.4391262922076455,
      2.3945287489665628,
      3.0,
      -2.56789444479934,
      0.5382784655372388
    ],
    [
      -1.8277115651811513,
      1.5438836353465315,
      3.0,
      1.3664529521267479,
      0.14879809295948865,
      -3.0,
      0.7169925107121209,
      -0.7123770776279154,
      2.59594470291404,
      -0.5255531508138709,
      -0.5138124402602068,
      3.0,
      0.5016339547789227
    ],
    [
      2.048150674724142,
      0.09593537729985624,
      0.14651171196585544,
      -1.3035875565364827,
      0.7525930578589118,
      3.0,
      2.7370607981444044,
      -1.8953040491845905,
      0.8672857320945166,
      -1.3175484653608838,
      -1.7552523079028584,
      -1.0293975404805131,
      -2.092908442036511
    ],
    [
      1.6833970489320464,
      1.597982367166852,
      1.7727704107300786,
      -1.6245952110187867,
      2.999333249626013,
      -2.5225264039003283,
      -0.3321779775555198,
      0.8750521866988046,
      1.5583133160997038,
      0.7172457733061136,
      -2.057405216476893,
      2.5637794771393723,
      -2.212190425762293
    ],
    [
      0.024016951429072342,
      -3.0,
      0.297339643470681,
      0.12145128919163206,
      -1.4173241070936142,
      0.22568510163486288,
      2.422758489243365,
      -0.7882058959284554,
      -1.1699131386968693,
      -1.8546481722291472,
      0.17046157909597692,
      1.5402934606187455,
      1.9951391959928921
    ],
    [
      2.8073822296863145,
      2.460046431685023,
      1.7008275819088574,
      -1.8453246641937444,
      -0.2978404000374121,
      0.8809415686942506,
      -2.968746640023414,
      -0.6077814647990878,
      2.481053112323186,
      1.9064411321667893,
      2.5980432573470775,
      1.077704870318429,
      -1.2790177595618037
    ],
    [
      1.4323195788194893,
      -0.2828997718419103,
      1.3663595582549934,
      2.4224257252423955,
      -0.6945075946331232,
      -3.0,
      -1.238196952684519,
      2.536397299112608,
      1.885303118000385,
      -1.884022509169943,
      3.0,
      0.6472167154487448,
      1.6530148212297795
    ],
    [
      1.6983598738613344,
      -0.9252868752760848,
      -0.8311623346314361,
      1.3584454145417104,
      -2.393071963835353,
      1.0609710432311035,
      1.5759380687830051,
      2.222924457171081,
      2.859279805334427,
      -3.0,
      0.976630248883691,
      -0.9226412838288126,
      2.352965063552173
    ],
    [
      2.2720832568676377,
      0.7927299880809736,
      -1.391996842821304,
      -2.34655035345638,
      -2.503620869630627,
      1.2655655160442474,
      1.9257205022876676,
      3.0,
      3.0,
      -0.5799423047998974,
      0.07773157090135152,
      1.3049799441207357,
      -2.7568320711389993
    ],
    [
      -2.319458161941625,
      -0.9178967064915221,
      -0.910018184871546,
      -3.0,
      1.7389651106448865,
      0.297795565368953,
      -0.7302340772981297,
      3.0,
      -1.9063810775455199,
      -1.549658385851469,
      -0.38816692319672264,
      0.6081380404082481,
      -2.387896039024173
    ],
    [
      1.792301170903252,
      -3.0,
      2.8336818962707992,
      1.7464907406609735,
      -1.5642133570971386,
      -1.993096402295707,
      1.01846836390301,
      -1.4564964300860257,
      1.989243123163122,
      2.1296206479086024,
      0.2940317326788997,
      -2.92038497031261,
      0.7911405764410253
    ],
    [
      -2.0049989941678863,
      -2.924453474938814,
      2.072900117833309,
      -2.9487315251218895,
      2.796395132140766,
      -0.3280523219802902,
      -0.5725223423068286,
      -0.5899567259244417,
      1.945491048631143,
      -1.7019482279310698,
      2.591805179588552,
      0.18317883529606516,
      1.632874807448128
    ],
    [
      -2.4822868523126855,
      -0.7535017590284154,
      1.079057573717974,
      -0.9353988068300718,
      1.5329397308794612,
      -0.025709652096914448,
      -1.621288376635596,
      -2.5027328160081255,
      -1.1621045420269671,
      -1.6965122602818774,
      0.20662763824328834,
      -0.6134236051041525,
      1.8555992294513386
    ],
    [
      -2.028228110739869,
      1.7169563559816003,
      -1.6833170325303146,
      -1.478981474924761,
      -2.639410750454213,
      -2.676010944065034,
      1.36809753302805,
      -1.6235454308749226,
      -1.5178940971537456,
      -1.3152068016897736,
      1.097971806064743,
      3.0,
      2.176599867736259
    ],
    [
      -2.188132025817228,
      1.217919374462326,
      -2.5236902060690576,
      -1.338757910025596,
      2.088059899240178,
      0.6565425284456625,
      -0.2062178139673706,
      1.6779614386289348,
      0.20932501287506844,
      1.1527639337473539,
      -0.9855026555552754,
      -0.8333465692172265,
      2.5775016287499652
    ],
    [
      0.08821161200860939,
      -1.1534743291655225,
      0.22471585803325356,
      -2.7544770595336923,
      -2.6946256354480744,
      0.6214628503082242,
      2.427650948457802,
      -0.3886497046180397,
      -3.0,
      0.07466720132393856,
      -0.49181770677626324,
      1.1513952150094304,
      -0.3747166179652416
    ],
    [
      -0.9926705646479559,
      -1.65013569795462,
      0.19324786241676195,
      2.4993086950451295,
      2.20643019872334,
      -1.3532242587526926,
      -3.0,
      -2.5768541204922704,
      1.241153717700352,
      -3.0,
      -0.5283445893949333,
      2.5001547008902176,
      -0.1047293213974706
    ],
    [
      0.5519740937155185,
      -1.5445339436347578,
      1.9452124148908305,
      1.3597262185254377,
      0.1351800500171474,
      -2.886007506253495,
      -3.0,
      -3.0,
      0.662369314772383,
      -1.0858094822925652,
      2.4643111567805973,
      -0.30788738294954865,
      -2.9315998883761973
    ],
    [
      2.178754715406548,
      -1.1575111384103711,
      1.9981489901409388,
      -2.4565267617336355,
      1.17475630340678,
      -2.806116927421414,
      -2.477216645814232,
      2.202453926884223,
      -1.8045056781869149,
      -1.6853661420979589,
      -3.0,
      -2.980318520291325,
      -2.215247556976708
    ],
    [
      0.08705486728275336,
      2.5063470858252557,
      -2.5827486257884704,
      -1.246299527105442,
      2.0558479734070065,
      -1.3600350425136623,
      2.804855857776024,
      -2.5492938852247606,
      0.7056555938970298,
      -0.26778696127497603,
      -0.4972443864064282,
      1.3166105870151519,
      -1.773186443934931
    ],
    [
      -1.806541779809711,
      0.8256433309295657,
      -2.7890926176914954,
      -1.7413037264072013,
      -0.5053671197668113,
      1.6069932952866033,
      -2.33073989722286,
      2.4136630923867655,
      2.9784658035474108,
      -2.313411125833898,
      -1.928152710896864,
      1.5020540475268875,
      0.5126151356101555
    ],
    [
      0.45847170800099246,
      -0.38438490505182366,
      1.4722838035698869,
      -2.007717313371331,
      -0.8178366621929447,
      1.294864013406206,
      -1.9695942550930674,
      -1.4658912998610314,
      2.7226587562255307,
      -2.3333755492464214,
      2.7824597510766242,
      1.292161141463109,
      -2.0815849447229557
    ],
    [
      -1.2148056008700587,
      -2.7689343380463063,
      -0.7157428756875821,
      -1.4268842322988702,
      -1.9137121347578554,
      0.7914743554847035,
      2.720245538385192,
      2.6607478682055667,
      -0.26185944412652473,
      -2.0133049087469663,
      2.2063322384514032,
      -2.561664921894726,
      -1.068172765071409
    ],
    [
      0.036251220713569454,
      -1.1417278895376708,
      -2.79862524054844,
      -1.430669125967952,
      -1.271992916393835,
      -2.354952430409263,
      -2.559396868717019,
      -2.203624004505129,
      3.0,
      1.9752419895233508,
      -0.5064857478321473,
      0.7956026776679702,
      -1.9789182372991894
    ],
    [
      0.15239666897471515,
      0.7287645486632867,
      0.8962094049270348,
      3.0,
      -3.0,
      0.16814156511380351,
      -0.670805192099253,
      2.438906686745529,
      1.207582416140315,
      -1.6593377493500583,
      -0.13360916226528097,
      2.3813574416035235,
      -0.09484921036667848
    ],
    [
      1.9851155670139908,
      -1.1725438623260702,
      1.2576397825433219,
      -1.6766634545115289,
      1.3531095362563823,
      0.4630633449890381,
      -0.451618715735297,
      1.480801297123293,
      2.828456993062058,
      -2.648080778767991,
      -2.7872165120831505,
      -0.2654616618136888,
      -1.6501496040171009
    ],
    [
      0.612684190260808,
      -2.0862726871369532,
      -2.384481270603546,
      1.2301078347562435,
      2.7170518039909437,
      -1.7939504544136624,
      1.9737689906647964,
      -0.7797544448057822,
      -1.0618285562053447,
      -1.1550624787354535,
      1.8696475683684373,
      -2.2263339448069965,
      -1.091299057338618
    ]
  ],
  "output_weights": [
    [
      1.1663369470831966,
      0.8102677798684279,
      2.3574258386161526,
      3.0,
      0.03503068641939244,
      1.9307645254565702,
      -2.665389226696904,
      -3.0,
      2.5905563562092024,
      -2.6272882174528793,
      1.7982579378052361,
      0.3254103670472138,
      -2.803541002307088,
      2.587594994332343,
      0.45230249301066905,
      -1.1748829586425118,
      -1.885651184417487,
      1.1715422200274135,
      -0.9302313935776055,
      -0.9768043566497397,
      -2.670737463417263,
      0.5204666619789223,
      2.7037583843554853,
      1.1888382683350684,
      -0.6156891049181278,
      -3.0,
      -0.6558492840694807,
      0.3216524497030837,
      1.5164579586694191,
      0.9951734917297238,
      -0.5882182633320645,
      -1.988201190069418,
      -2.230372238836728
    ],
    [
      2.884069499329147,
      -3.0,
      0.6998890848462674,
      -0.4511292246183385,
      0.5510356897727822,
      0.9984423487829959,
      -1.3399731373420802,
      1.3505142921176727,
      1.5313002149115784,
      1.1935327272519087,
      -0.8820103997196583,
      1.0975672583540708,
      -1.4281646703619995,
      -1.261167340867924,
      0.17974437391627462,
      3.0,
      -1.03233962118803,
      -1.15672257939009,
      3.0,
      -0.49053784187387295,
      2.9747454988822035,
      3.0,
      0.23525749654378147,
      -3.0,
      -0.16091178203027334,
      2.8776748983641713,
      -2.7158389683118256,
      -3.0,
      -1.8944416753995674,
      -2.7565529977787464,
      0.6124559366143594,
      -3.0,
      0.7984721839921186
    ],
    [
      2.5572607849624793,
      -0.34356252987309943,
      1.152166567105145,
      -0.20666443565140835,
      -1.222863270474463,
      0.34663288544761395,
      2.6823055043705577,
      1.4882746499122623,
      -1.3365885295395876,
      -2.893161329476614,
      -1.0368475835083681,
      -2.6403700309165017,
      2.5952495992644455,
      -1.081939507043559,
      -2.1645098030321415,
      2.322266433331615,
      -0.2851045707553499,
      1.8225061313821005,
      -0.4441772265463405,
      -0.9129828216212592,
      3.0,
      -0.7460317382043768,
      -1.4193460732469343,
      0.21594656540190804,
      2.6792526369024943,
      -1.9465745056762334,
      -1.2585576159434582,
      -1.3464496721180008,
      -2.440138564622968,
      -1.7479716738180673,
      -0.8302867291175131,
      2.710906015670497,
      -1.8550926014671436
    ],
    [
      -0.1087093927105599,
      1.9699493106806223,
      -0.7837584217209652,
      1.7914512243971172,
      -1.9308678482906974,
      -0.28082662956434634,
      1.477352779735913,
      -0.04571506232636846,
      -2.072921574828937,
      -0.408996923869146,
      -2.4740092670896923,
      -0.520896259004043,
      1.9394054559052625,
      -2.6205583296881763,
      1.1119854244849479,
      1.4109402711055594,
      0.8863989236490376,
      -2.8322513650424295,
      2.5235172837383013,
      -0.3079611336439344,
      -0.4619470085244358,
      -2.0592741891947117,
      2.49187637669416,
      -2.279843006456274,
      1.4175444039377547,
      0.9889752096312333,
      1.7737952230363776,
      -0.29694417663731787,
      -1.5848198545045071,
      2.116066247971033,
      1.2917415353098671,
      -1.2906237538693137,
      -0.9735659389335524
    ]
  ]
}