{
  "input_size": 12,
  "hidden_size": 32,
  "output_size": 4,
  "weight_range": 3.0,
  "hidden_weights": [
    [
      -0.907223576952354,
      3.0,
      -1.2635741333434427,
      -0.8568243950466368,
      -1.9111541312352678,
      3.0,
      -2.7474770891815545,
      -0.22433919161432325,
      2.7652228121095757,
      -1.4016365822008088,
      -0.00022040756957852903,
      0.09248682551137932,
      -2.2353523578423644
    ],
    [
      -0.5666570770666083,
      -0.22731986956866124,
      2.8377104386500545,
      -0.21617656540724361,
      1.758558983968486,
      1.4852953289073865,
      -0.6077893531159491,
      2.097954417589868,
      -1.7316777978516562,
      -2.718714531345986,
      0.9434107131193923,
      2.5518990076559236,
      0.05455889562288818
    ],
    [
      2.5509047620567644,
      -2.0180505274390437,
      2.019489470766734,
      -0.1126046244783635,
      -1.126582448816758,
      1.5363007306316514,
      -0.5476566191284821,
      -0.7818300304818624,
      -2.7338435579763782,
      -1.1688143486807947,
      2.725176616646082,
      -2.574951374669886,
      -0.8838887021311076
    ],
    [
      -2.3850482797873678,
      -0.28629020998465227,
      -2.8540241874739394,
      0.28002062227529645,
      -2.4865477864424985,
      3.0,
      1.125378968763306,
      0.8958468252174427,
      -2.0396602484178734,
      1.5533090968448522,
      -0.8663623226769497,
      -0.3237087412557951,
      -0.09484019284270129
    ],
    [
      0.13145829387810049,
      0.14233387527735053,
      1.6615143771186736,
      1.1392190550690655,
      3.0,
      0.0202449112684715,
      -0.9482998319424875,
      -0.4951746750583961,
      -0.9724986493839688,
      -0.16361924443618325,
      -2.9180394598920856,
      0.47880081268549224,
      -0.6436467122049103
    ],
    [
      -1.3135102037061785,
      1.7441690507292424,
      3.0,
      -3.0,
      -1.7703316384764807,
      -0.5766565010081498,
      -2.489329439165079,
      2.260117696766568,
      -1.5052987792981192,
      2.2383014437390667,
      2.7029778084342784,
      -2.7467195995298894,
      0.3151886012127767
    ],
    [
      -1.4298369195631788,
      -0.2467796732229809,
      2.5006032446734134,
      1.9109680177991275,
      -0.7566377872399757,
      -2.3407261853042813,
      1.2172801100999897,
      0.008759772582367709,
      1.4473458531671257,
      -0.8025313254683158,
      -0.9576995581473694,
      3.0,
      1.075667080733037
    ],
    [
      2.048150674724142,
      -0.04875507102380938,
      -0.4654475858674285,
      -1.2576430909701388,
      0.33607004440180444,
      3.0,
      3.0,
      -2.1771423758455004,
      1.1337667997633138,
      -1.3963559540225887,
      -2.052564314208846,
      -0.6027849800032401,
      -2.397536187094092
    ],
    [
      1.2030973126212952,
      1.7759040022103771,
      2.8612145287108195,
      -1.4044665855975809,
      2.0554330671442766,
      -2.6947159655347557,
      -0.43722407261042917,
      1.4338587951446466,
      1.6331231207835093,
      1.002978971943007,
      -3.0,
      3.0,
      -2.110397699340407
    ],
    [
      -0.4303694475654467,
      -2.9560477415906288,
      -0.12056713791607343,
      -0.22016502653662717,
      -0.8785199512310101,
      0.8874256561631509,
      1.7727459902382092,
      -0.4694814362496331,
      -1.3383955212884784,
      -1.5718991834251717,
      0.10150996081059649,
      1.2445047639102755,
      2.325264284784969
    ],
    [
      2.099990389176921,
      2.9507271032785036,
      1.8876153830324092,
      -1.6732813620423372,
      0.35531126701813354,
      1.3986525789652209,
      -2.5403507580235467,
      -0.9174348478998531,
      1.7618214756298671,
      1.583742235857885,
      2.371556647704807,
      2.0796269641672342,
      -1.10450803090413
    ],
    [
      1.1292637324581538,
      0.006733047446202178,
      1.1918003914544206,
      2.1689068326815732,
      -1.3760292038965474,
      -3.0,
      -1.6504433708903539,
      2.6035403240562482,
      1.2737180017138723,
      -2.08889362158638,
      2.56579399193374,
      0.03195557807078675,
      2.598875331540535
    ],
    [
      1.4885317674277494,
      -1.0870238313031453,
      -1.149356660942232,
      1.0767673276492538,
      -1.8661583653032419,
      1.6496788491678294,
      1.7185560574838779,
      1.993470074273346,
      2.510094080899959,
      -2.0384801109694957,
      0.7565702085257174,
      -1.0682512866683505,
      2.8519473964729083
    ],
    [
      2.466039248496034,
      -0.14710884900156707,
      -2.153559927100581,
      -3.0,
      -2.429834522106909,
      0.5427595660237229,
      1.7372949090625867,
      2.6731632986785385,
      3.0,
      -0.704900546602703,
      0.4698566364402361,
      0.438558429756843,
      -2.523107387729797
    ],
    [
      -1.8388776983643416,
      -0.9178967064915221,
      -0.8352762611396446,
      -3.0,
      0.31895559991446565,
      0.5205429700257361,
      -0.7161912444460604,
      3.0,
      -2.17398135352782,
      -1.8772829350815359,
      -0.3508384834795095,
      0.2545242711051433,
      -2.20377421962015
    ],
    [
      1.6664615142734873,
      -2.568245729071503,
      2.8158260260126124,
      1.0758707782415242,
      -1.727935018331387,
      -2.2977535167688927,
      1.5602404925913365,
      -1.171633770856146,
      2.1664659073315615,
      2.530647499420934,
      0.855110989838729,
      -3.0,
      0.17643699071774244
    ],
    [
      -1.4233395185889373,
      -3.0,
      1.8099852718490568,
      -2.4328171834490746,
      2.2028932767773197,
      -0.5947463271148004,
      -0.9762163924694071,
      -0.4616648025735782,
      1.4616467813289526,
      -1.492497538673664,
      1.9444436080992478,
      0.9449405833903347,
      1.632874807448128
    ],
    [
      -1.959060787681127,
      -0.7073718413908463,
      0.8307603063949727,
      -0.8841778643504723,
      2.2411043761475007,
      -1.1898556650523893,
      -1.2696738619160566,
      -2.234846158657733,
      -0.9027717661682574,
      -1.9864524784354582,
      0.39225448146748476,
      -0.3782737726316272,
      0.16777363731972494
    ],
    [
      -2.299747174948797,
      2.069808784683781,
      -1.3082688444858372,
      -1.3035438120916654,
      -2.77650461151417,
      -2.2314431693359156,
      1.660191617963033,
      -1.961408107177483,
      -1.15494849629353,
      -1.1481924534341292,
      1.8387180255123274,
      3.0,
      1.62893096874119
    ],
    [
      -1.7745120232830143,
      1.2079861594700423,
      -2.656003974540909,
      -1.2474560764520648,
      1.8898181096879574,
      0.41839194279397107,
      0.8722440949138013,
      2.229501575742763,
      0.3811067585299672,
      1.8309943958535317,
      -0.21888287311421806,
      -1.3365867208462636,
      2.6496265621574895
    ],
    [
      0.034880156118091366,
      -0.8259301362644806,
      0.16160305526644203,
      -2.723002178166695,
      -2.758248991676607,
      1.6038415777972563,
      2.6223686282607113,
      -1.2511443802198252,
      -2.530472248883984,
      -0.16288215412156126,
      -0.3324012097099397,
      1.066471241852558,
      0.03711118776192579
    ],
    [
      -0.9126885281944415,
      -1.9690719098442437,
      0.736913598868842,
      2.9445771764593998,
      1.9069588650491807,
      -1.5659671783604732,
      -3.0,
      -2.917769516944671,
      1.241153717700352,
      -2.868286984425544,
      -0.9535954323862128,
      2.2571089848689874,
      0.04472658183534528
    ],
    [
      0.602869863980925,
      -1.0327425805969015,
      1.9452124148908305,
      0.5626096352622081,
      0.2540980267159103,
      -2.488838081893711,
      -3.0,
      -2.701291110132064,
      0.662369314772383,
      -1.4148334742357278,
      2.1749105131210977,
      -0.8408533570745248,
      -2.5962794839755845
    ],
    [
      2.9451469489377926,
      -1.3086751368672052,
      2.564990553196663,
      -2.667191902299608,
      1.185165671350449,
      -2.739271857749003,
      -2.6149247766248687,
      2.160238780617375,
      -1.4506345954246676,
      -1.8478365363948608,
      -2.5806712813011967,
      -2.6379460997294326,
      -2.221936540850019
    ],
    [
      0.5299406456903566,
      2.3384016425448197,
      -2.952693517970853,
      -1.6341344617332696,
      2.9117768505912403,
      -1.2906318223589013,
      2.663729815491063,
      -1.6147125990002704,
      0.10871603280457709,
      -1.0711673370405994,
      -0.10504762979345827,
      1.0592539971435655,
      -1.9855480455935166
    ],
    [
      -1.8854657821914067,
      0.8250225517627655,
      -2.7890926176914954,
      -2.072931500179366,
      -0.6480450978634954,
      1.1698878640532235,
      -2.691991234590336,
      2.3377128079457306,
      2.8621341454757845,
      -2.498311364960683,
      -2.362652620998585,
      1.4174459078678707,
      1.2205112599762358
    ],
    [
      0.20696573214187408,
      -1.0182882942335307,
      2.661356420618148,
      -1.8315532253998499,
      -0.6839825751892274,
      2.0194227754248715,
      -2.342941422012078,
      -1.0610740716434508,
      2.2067718052086978,
      -2.678471210342325,
      2.772294241917949,
      2.2284031652386442,
      -1.5139837686256084
    ],
    [
      -0.753017357095167,
      -3.0,
      -0.7157428756875821,
      -0.8750685164533821,
      -1.7503266507706159,
      0.7914743554847035,
      2.299343025736843,
      2.475599722952925,
      -0.2949258558478396,
      -1.5420383857422912,
      2.0338542234690733,
      -2.50725095963029,
      -1.3494069244074065
    ],
    [
      -0.3264984804070533,
      -1.6203331615648797,
      -2.696508180167189,
      -1.4328355852829613,
      -1.1155550390764568,
      -1.9872692007259425,
      -2.786550979069871,
      -1.7989126386364886,
      2.8330026212738204,
      1.9318885804960892,
      -0.42118027924153456,
      0.7956026776679702,
      -2.02235884886197
    ],
    [
      0.7994271423006406,
      0.41194558127649294,
      1.211478436085194,
      2.7286909213190924,
      -1.8355005914662614,
      -0.13669129097539567,
      -0.5624391466803967,
      1.949853166142491,
      2.2347155004260513,
      -1.2226259909870656,
      0.4708611560232414,
      2.0681696464084327,
      -0.5527978588782494
    ],
    [
      1.5337134123322524,
      -1.6447505418120305,
      2.1508650757003873,
      -1.95889763708595,
      1.5697385709022909,
      -0.024345908586997256,
      -0.2113142685411159,
      1.3516538453395155,
      2.8489693964913534,
      -2.8450286758198695,
      -2.663735386998739,
      0.014046097690028625,
      -1.6501496040171009
    ],
    [
      0.162754412079417,
      -2.0804093285339036,
      -2.8028544901342047,
      2.025011122841755,
      2.79292581153042,
      -1.3249052019481422,
      1.5567860538391307,
      -0.663123626461861,
      -2.319824963115399,
      -0.6945855172377283,
      1.9509268143854044,
      -2.75072928969622,
      -0.8967125594038213
    ]
  ],
  "output_weights": [
    [
      1.4288700396132903,
      1.315609984711692,
      2.0699508869550054,
      3.0,
      0.03503068641939244,
      1.9883851633832081,
      -2.7323818074001913,
      -2.0421930243498565,
      2.976002595010782,
      -3.0,
      2.0724655111315826,
      0.6965743793934844,
      -2.990182280616762,
      2.880893915413498,
      0.2848129219562129,
      -1.533477417547579,
      -1.96762484397726,
      0.4742750420304469,
      -0.9302313935776055,
      -1.1864945314348456,
      -2.521783790786187,
      0.39517078478269796,
      2.999793609542613,
      1.6355252740245492,
      -1.572750338393889,
      -2.9926142762006984,
      -0.6663317743119967,
      0.9300356431510385,
      1.4891673630221898,
      1.8434753199958418,
      -0.6061256116074626,
      -1.6748204081387066,
      -2.2025271945213745
    ],
    [
      2.109877890969903,
      -3.0,
      1.0900718081769045,
      -0.4177411668099055,
      0.6961617311716527,
      0.7759026239339447,
      -1.1038282007730964,
      0.9685645882749924,
      2.2039491586274433,
      0.9892916808087606,
      -1.6729958347899312,
      1.328950240976439,
      -1.4000048439816433,
      -1.2825785400546352,
      0.3713661555916057,
      3.0,
      -1.4026546729504141,
      -1.192836658896807,
      2.3612288677149094,
      -0.7976332999641069,
      3.0,
      2.6150240572522607,
      -0.07755210452080663,
      -3.0,
      0.10686195955780653,
      3.0,
      -2.6169536547186283,
      -3.0,
      -1.970609690989947,
      -2.503855382376748,
      1.1679591411381596,
      -2.8792325660157165,
      0.2761351438643729
    ],
    [
      2.328927021789374,
      -0.5753960433261271,
      0.7693892362874931,
      -0.13141306660307517,
      -1.4398127806995333,
      -0.1450000776278606,
      2.735571137451812,
      1.8724312018547393,
      -1.2821377270437013,
      -2.6123225954296783,
      -0.9754634246495003,
      -3.0,
      2.515034086263404,
      -1.081939507043559,
      -1.6489878369702309,
      1.8947871998098482,
      -0.11682900961504161,
      1.229513459054951,
      -1.7652397847714338,
      -0.5556942287125728,
      2.662621225206123,
      -0.6783212082942842,
      -0.7390823299733735,
      -0.20236636641518846,
      2.270826496862653,
      -1.882082238118816,
      -0.5659402852822217,
      -1.2392977100722007,
      -1.901551048946317,
      -2.194792188075203,
      -0.7831111668728328,
      2.6150801079318797,
      -1.8332563858883382
    ],
    [
      -0.6704179201080881,
      2.574627244782465,
      -0.5287594096280347,
      2.126537428612783,
      -1.7133107341817293,
      0.41804639797677423,
      0.6098720324923719,
      -0.99270569213313,
      -2.204625733513412,
      -0.11079117213621537,
      -2.3217177444687236,
      -0.9930429757294269,
      2.233836617386688,
      -2.557933007914132,
      1.2351582704086024,
      1.5399438929467415,
      0.5487950154335912,
      -2.5130319666029672,
      2.6587670154400502,
      -0.04308236831154855,
      -0.33955491707871255,
      -1.8346874846875287,
      2.67312869196874,
      -2.279843006456274,
      1.7663151505321535,
      1.1761929452955977,
      2.9254199905030522,
      0.17370705577387935,
      -0.7905325395494596,
      2.146282883521152,
      1.3752207626356818,
      -1.2620151163012836,
      -2.00533865406613
    ]
  ]
}
